digraph Tree {
node [shape=box, style="rounded", color="black", fontname=helvetica] ;
edge [fontname=helvetica] ;
0 [label="angle_13y <= 1.616\ngini = 0.5\nsamples = 48\nvalue = [24, 24]"] ;
1 [label="gini = 0.0\nsamples = 24\nvalue = [24, 0]"] ;
0 -> 1 [labeldistance=2.5, labelangle=45, headlabel="True"] ;
2 [label="gini = 0.0\nsamples = 24\nvalue = [0, 24]"] ;
0 -> 2 [labeldistance=2.5, labelangle=-45, headlabel="False"] ;
}